<?xml version="1.0"?>
<opencv_storage>
<Carbatch_14Aug type_id="opencv-haar-classifier">
  <size>
    50 35</size>
  <stages>
    <_>
      <trees>
        <_>
          <_>
            <feature>
              <rects>
                <_>
                  1 0 38 31 -1.</_>
                <_>
                  20 0 19 31 2.</_></rects>
              <tilted>0</tilted></feature>
            <threshold>0.1562646031379700</threshold>
            <left_val>-1.</left_val>
            <right_val>0.9999991059303284</right_val></_></_></trees>
      <stage_threshold>0.9999991059303284</stage_threshold>
      <parent>-1</parent>
      <next>-1</next></_>
    <_>
      <trees>
        <_>
          <_>
            <feature>
              <rects>
                <_>
                  0 23 16 12 -1.</_>
                <_>
                  8 23 8 12 2.</_></rects>
              <tilted>0</tilted></feature>
            <threshold>0.0452765598893166</threshold>
            <left_val>-0.7879654765129089</left_val>
            <right_val>0.9407063126564026</right_val></_></_>
        <_>
          <_>
            <feature>
              <rects>
                <_>
                  44 30 6 5 -1.</_>
                <_>
                  46 30 2 5 3.</_></rects>
              <tilted>0</tilted></feature>
            <threshold>1.1817290214821696e-003</threshold>
            <left_val>-0.9371246099472046</left_val>
            <right_val>0.8447073101997376</right_val></_></_></trees>
      <stage_threshold>3.5817029420286417e-003</stage_threshold>
      <parent>0</parent>
      <next>-1</next></_>
    <_>
      <trees>
        <_>
          <_>
            <feature>
              <rects>
                <_>
                  4 0 24 12 -1.</_>
                <_>
                  12 4 8 4 9.</_></rects>
              <tilted>0</tilted></feature>
            <threshold>0.0544981509447098</threshold>
            <left_val>-1.</left_val>
            <right_val>0.7619044780731201</right_val></_></_></trees>
      <stage_threshold>0.7619044780731201</stage_threshold>
      <parent>1</parent>
      <next>-1</next></_>
    <_>
      <trees>
        <_>
          <_>
            <feature>
              <rects>
                <_>
                  14 31 30 4 -1.</_>
                <_>
                  14 32 30 2 2.</_></rects>
              <tilted>0</tilted></feature>
            <threshold>9.4199739396572113e-003</threshold>
            <left_val>-0.7269372940063477</left_val>
            <right_val>0.9380944967269898</right_val></_></_>
        <_>
          <_>
            <feature>
              <rects>
                <_>
                  3 5 8 18 -1.</_>
                <_>
                  3 11 8 6 3.</_></rects>
              <tilted>0</tilted></feature>
            <threshold>3.4484278876334429e-003</threshold>
            <left_val>-0.7497786283493042</left_val>
            <right_val>0.9555044174194336</right_val></_></_></trees>
      <stage_threshold>0.1883158981800079</stage_threshold>
      <parent>2</parent>
      <next>-1</next></_>
    <_>
      <trees>
        <_>
          <_>
            <feature>
              <rects>
                <_>
                  39 4 9 13 -1.</_>
                <_>
                  42 4 3 13 3.</_></rects>
              <tilted>0</tilted></feature>
            <threshold>-0.0107476701959968</threshold>
            <left_val>1.</left_val>
            <right_val>-0.7333335280418396</right_val></_></_>
        <_>
          <_>
            <feature>
              <rects>
                <_>
                  27 29 10 6 -1.</_>
                <_>
                  27 31 10 2 3.</_></rects>
              <tilted>0</tilted></feature>
            <threshold>5.7450640015304089e-003</threshold>
            <left_val>-0.7432324290275574</left_val>
            <right_val>1.0000009536743164</right_val></_></_></trees>
      <stage_threshold>0.2567676007747650</stage_threshold>
      <parent>3</parent>
      <next>-1</next></_>
    <_>
      <trees>
        <_>
          <_>
            <feature>
              <rects>
                <_>
                  12 23 36 11 -1.</_>
                <_>
                  21 23 18 11 2.</_></rects>
              <tilted>0</tilted></feature>
            <threshold>-9.6366964280605316e-003</threshold>
            <left_val>0.8848283290863037</left_val>
            <right_val>-0.7825661897659302</right_val></_></_>
        <_>
          <_>
            <feature>
              <rects>
                <_>
                  31 2 16 28 -1.</_>
                <_>
                  31 2 8 14 2.</_>
                <_>
                  39 16 8 14 2.</_></rects>
              <tilted>0</tilted></feature>
            <threshold>0.0150869302451611</threshold>
            <left_val>-0.9386485219001770</left_val>
            <right_val>0.8137295842170715</right_val></_></_></trees>
      <stage_threshold>-0.0538201294839382</stage_threshold>
      <parent>4</parent>
      <next>-1</next></_>
    <_>
      <trees>
        <_>
          <_>
            <feature>
              <rects>
                <_>
                  31 9 6 14 -1.</_>
                <_>
                  34 9 3 14 2.</_></rects>
              <tilted>0</tilted></feature>
            <threshold>3.1583390664309263e-003</threshold>
            <left_val>-0.8495934009552002</left_val>
            <right_val>0.8893613219261169</right_val></_></_>
        <_>
          <_>
            <feature>
              <rects>
                <_>
                  17 31 20 4 -1.</_>
                <_>
                  17 32 20 2 2.</_></rects>
              <tilted>0</tilted></feature>
            <threshold>8.4891477599740028e-003</threshold>
            <left_val>-0.7381129264831543</left_val>
            <right_val>0.9529982209205627</right_val></_></_></trees>
      <stage_threshold>0.1034047976136208</stage_threshold>
      <parent>5</parent>
      <next>-1</next></_>
    <_>
      <trees>
        <_>
          <_>
            <feature>
              <rects>
                <_>
                  22 9 15 4 -1.</_>
                <_>
                  27 14 5 4 3.</_></rects>
              <tilted>1</tilted></feature>
            <threshold>0.0100584300234914</threshold>
            <left_val>-0.9122182130813599</left_val>
            <right_val>0.7113779783248901</right_val></_></_>
        <_>
          <_>
            <feature>
              <rects>
                <_>
                  16 17 32 3 -1.</_>
                <_>
                  16 18 32 1 3.</_></rects>
              <tilted>0</tilted></feature>
            <threshold>1.7393080051988363e-003</threshold>
            <left_val>-0.8360059857368469</left_val>
            <right_val>0.8802239894866943</right_val></_></_></trees>
      <stage_threshold>-0.1246280968189240</stage_threshold>
      <parent>6</parent>
      <next>-1</next></_>
    <_>
      <trees>
        <_>
          <_>
            <feature>
              <rects>
                <_>
                  46 10 4 22 -1.</_>
                <_>
                  47 10 2 22 2.</_></rects>
              <tilted>0</tilted></feature>
            <threshold>5.7006711140275002e-003</threshold>
            <left_val>-0.6250001192092896</left_val>
            <right_val>0.9999997019767761</right_val></_></_>
        <_>
          <_>
            <feature>
              <rects>
                <_>
                  32 2 7 8 -1.</_>
                <_>
                  32 4 7 4 2.</_></rects>
              <tilted>0</tilted></feature>
            <threshold>1.2310070451349020e-003</threshold>
            <left_val>-0.8812887072563171</left_val>
            <right_val>0.7753115892410278</right_val></_></_></trees>
      <stage_threshold>0.1187110021710396</stage_threshold>
      <parent>7</parent>
      <next>-1</next></_>
    <_>
      <trees>
        <_>
          <_>
            <feature>
              <rects>
                <_>
                  1 26 28 2 -1.</_>
                <_>
                  8 26 14 2 2.</_></rects>
              <tilted>0</tilted></feature>
            <threshold>4.0469127707183361e-003</threshold>
            <left_val>-0.9173185229301453</left_val>
            <right_val>0.7978615760803223</right_val></_></_>
        <_>
          <_>
            <feature>
              <rects>
                <_>
                  5 0 34 34 -1.</_>
                <_>
                  5 0 17 17 2.</_>
                <_>
                  22 17 17 17 2.</_></rects>
              <tilted>0</tilted></feature>
            <threshold>-0.0216224398463964</threshold>
            <left_val>-1.</left_val>
            <right_val>0.7193167209625244</right_val></_></_></trees>
      <stage_threshold>-0.1980018019676209</stage_threshold>
      <parent>8</parent>
      <next>-1</next></_>
    <_>
      <trees>
        <_>
          <_>
            <feature>
              <rects>
                <_>
                  11 24 24 9 -1.</_>
                <_>
                  23 24 12 9 2.</_></rects>
              <tilted>0</tilted></feature>
            <threshold>3.2854110468178988e-003</threshold>
            <left_val>0.8320775032043457</left_val>
            <right_val>-0.7768844962120056</right_val></_></_>
        <_>
          <_>
            <feature>
              <rects>
                <_>
                  18 23 2 4 -1.</_>
                <_>
                  19 23 1 4 2.</_></rects>
              <tilted>0</tilted></feature>
            <threshold>-5.8948027435690165e-004</threshold>
            <left_val>1.</left_val>
            <right_val>-0.6394860148429871</right_val></_></_></trees>
      <stage_threshold>0.1925915032625198</stage_threshold>
      <parent>9</parent>
      <next>-1</next></_>
    <_>
      <trees>
        <_>
          <_>
            <feature>
              <rects>
                <_>
                  36 12 9 9 -1.</_>
                <_>
                  39 15 3 9 3.</_></rects>
              <tilted>1</tilted></feature>
            <threshold>-7.8409630805253983e-003</threshold>
            <left_val>0.8799074888229370</left_val>
            <right_val>-0.7202270030975342</right_val></_></_>
        <_>
          <_>
            <feature>
              <rects>
                <_>
                  1 3 22 4 -1.</_>
                <_>
                  12 3 11 4 2.</_></rects>
              <tilted>0</tilted></feature>
            <threshold>0.0327803716063499</threshold>
            <left_val>-0.8366131782531738</left_val>
            <right_val>0.8433958292007446</right_val></_></_></trees>
      <stage_threshold>0.0432943701744080</stage_threshold>
      <parent>10</parent>
      <next>-1</next></_>
    <_>
      <trees>
        <_>
          <_>
            <feature>
              <rects>
                <_>
                  13 4 4 6 -1.</_>
                <_>
                  13 4 4 3 2.</_></rects>
              <tilted>1</tilted></feature>
            <threshold>6.8927011452615261e-003</threshold>
            <left_val>-0.9122182130813599</left_val>
            <right_val>0.7113780975341797</right_val></_></_>
        <_>
          <_>
            <feature>
              <rects>
                <_>
                  33 34 4 1 -1.</_>
                <_>
                  34 34 2 1 2.</_></rects>
              <tilted>0</tilted></feature>
            <threshold>-3.4053999115712941e-005</threshold>
            <left_val>-1.</left_val>
            <right_val>0.7064216136932373</right_val></_></_></trees>
      <stage_threshold>-0.2057965993881226</stage_threshold>
      <parent>11</parent>
      <next>-1</next></_>
    <_>
      <trees>
        <_>
          <_>
            <feature>
              <rects>
                <_>
                  42 27 8 8 -1.</_>
                <_>
                  44 27 4 8 2.</_></rects>
              <tilted>0</tilted></feature>
            <threshold>2.6305830106139183e-003</threshold>
            <left_val>-0.8455114960670471</left_val>
            <right_val>0.8385087847709656</right_val></_></_>
        <_>
          <_>
            <feature>
              <rects>
                <_>
                  16 3 2 10 -1.</_>
                <_>
                  16 3 2 5 2.</_></rects>
              <tilted>1</tilted></feature>
            <threshold>9.8067875951528549e-003</threshold>
            <left_val>-0.9371383190155029</left_val>
            <right_val>0.7794160842895508</right_val></_></_></trees>
      <stage_threshold>-0.0986294671893120</stage_threshold>
      <parent>12</parent>
      <next>-1</next></_>
    <_>
      <trees>
        <_>
          <_>
            <feature>
              <rects>
                <_>
                  10 0 24 2 -1.</_>
                <_>
                  10 0 12 2 2.</_></rects>
              <tilted>1</tilted></feature>
            <threshold>6.9753918796777725e-003</threshold>
            <left_val>1.</left_val>
            <right_val>-1.0000009536743164</right_val></_></_></trees>
      <stage_threshold>1.</stage_threshold>
      <parent>13</parent>
      <next>-1</next></_></stages></Carbatch_14Aug>
</opencv_storage>
